#ifndef HEADER_FILE
#define HEADER_FILE
float relu_weights[3][128] = {{-0.1696167141199112,0.12183623760938644,0.01781122386455536,0.14836172759532928,-0.1528644561767578,0.1474885642528534,-0.12470712512731552,0.2023499608039856,-0.20020124316215515,-0.20114484429359436,0.09890179336071014,0.15863345563411713,0.020451083779335022,-0.10271027684211731,0.014453776180744171,-0.08881734311580658,-0.11087498813867569,0.02740497887134552,-0.012700796127319336,0.04645126685500145,0.14628447592258453,-0.08518785238265991,0.09191407263278961,-0.14893101155757904,0.06995265185832977,0.050701215863227844,-0.0073144868947565556,0.004708811640739441,0.16578583419322968,0.08516240119934082,0.05516035109758377,0.11724614351987839,-0.17064526677131653,0.08440889418125153,-0.0053782896138727665,0.07455145567655563,0.11400101333856583,-0.10944262146949768,-0.10275042802095413,0.08307729661464691,-0.01149284839630127,-0.058323681354522705,-0.035775378346443176,-0.07596330344676971,0.11247773468494415,0.1545344889163971,-0.18036071956157684,-0.05383989214897156,0.006536947563290596,0.0971515104174614,0.13795070350170135,-0.22775836288928986,0.007697433233261108,0.21772047877311707,-0.10122726857662201,0.08569791167974472,-0.10973887145519257,-0.11131235212087631,-0.1560937911272049,-0.004102495964616537,0.04300336539745331,0.16902634501457214,-0.13143037259578705,-0.08488695323467255,-0.060309961438179016,-0.016523003578186035,-0.08562064170837402,0.056900545954704285,0.030303359031677246,-0.17686665058135986,-0.11742068827152252,0.13221240043640137,0.07288220524787903,-0.137431800365448,-0.09495575726032257,-0.08045266568660736,-0.12266984581947327,0.00401583407074213,-0.13726593554019928,-0.07697094976902008,-0.0622742623090744,0.009050801396369934,-0.033697858452796936,0.18334418535232544,0.1375894546508789,-0.1868617683649063,0.10377005487680435,0.12466134876012802,0.08738977462053299,0.14864018559455872,0.07313207536935806,-0.17935389280319214,-0.008873233571648598,0.03737250715494156,0.0390034057199955,-0.06924260407686234,-0.07317811250686646,0.08514867722988129,-0.039229393005371094,-0.14770856499671936,0.05658973753452301,0.0369843989610672,-0.12834827601909637,0.09718602150678635,0.20687006413936615,-0.01814972795546055,-0.05206258222460747,0.14854605495929718,-0.14901882410049438,0.07083697617053986,-0.08614742755889893,0.008087098598480225,0.13541220128536224,-0.08233720064163208,0.1331586241722107,-0.10523107647895813,-0.04543270170688629,0.10818290710449219,0.12186409533023834,-0.1195598766207695,0.1686125546693802,-0.10357218980789185,0.19053903222084045,-0.10597988963127136,0.0931035652756691,0.10688312351703644,0.012674570083618164,0.12093047797679901,},{-0.06518858671188354,0.033016037195920944,0.06253434717655182,-0.1447998732328415,-0.13592708110809326,-0.20071092247962952,0.009535184130072594,-0.0860983207821846,-0.012342661619186401,-0.13204899430274963,-0.18247446417808533,0.13988564908504486,0.052972212433815,0.027107495814561844,-0.06687279045581818,-0.08133181929588318,-0.0024288296699523926,-0.17446762323379517,-0.13955405354499817,0.04478300362825394,-0.21146346628665924,-0.14157071709632874,0.09496883302927017,-0.15783700346946716,-0.15526847541332245,-0.05562278628349304,0.1698906421661377,-0.16661666333675385,0.17920851707458496,-0.05079727619886398,0.17569807171821594,0.10979567468166351,-0.060843124985694885,-0.010459146462380886,-0.0031437857542186975,0.0657767653465271,0.15258756279945374,0.02922554314136505,0.07107079774141312,-0.20140618085861206,-0.18145085871219635,-0.08549660444259644,-0.13545352220535278,-0.09895047545433044,-0.16903875768184662,0.03163311257958412,0.11963193118572235,0.13017135858535767,0.05669103562831879,-0.005968984682112932,-0.1360660195350647,0.19012700021266937,0.07737970352172852,0.20446829497814178,0.22097215056419373,0.10751806944608688,0.15394289791584015,0.13443264365196228,-0.016207333654165268,0.1104498952627182,-0.1531020700931549,0.056655727326869965,0.12050177156925201,-0.15823417901992798,-0.07002368569374084,-0.023924589157104492,0.03137117624282837,-0.01740056648850441,0.08916668593883514,-0.18106241524219513,-0.007824018597602844,0.0499553419649601,0.07763917744159698,0.04682762920856476,0.052509114146232605,-0.06882047653198242,0.10549232363700867,0.12260517477989197,0.08474330604076385,0.07474373281002045,0.02566586434841156,-0.07057428359985352,-0.008880183100700378,0.013698763214051723,0.1624162346124649,-0.001679942011833191,-0.19600622355937958,-0.048290055245161057,0.09664095938205719,-0.15549112856388092,0.15890707075595856,0.079218789935112,0.038356587290763855,0.2180698961019516,0.07854880392551422,0.016128897666931152,0.16318988800048828,0.0876057967543602,0.018558070063591003,-0.158570796251297,-0.219086155295372,-0.03612896800041199,0.0926649197936058,0.11326592415571213,0.035711921751499176,0.10787331312894821,0.08065121620893478,0.004731818102300167,0.059970155358314514,-0.11538480222225189,-0.011415332555770874,-0.03243483603000641,-0.019852356985211372,-0.08581367135047913,0.10331301391124725,0.05503073334693909,-0.1511296033859253,0.10219090431928635,0.04633146524429321,0.0474901907145977,0.09090863168239594,0.03876332938671112,-0.14490923285484314,-0.20727898180484772,0.1196606457233429,-0.14371713995933533,-0.08627176284790039,-0.18588979542255402,},{0.0267878919839859,0.10945034772157669,-0.16768613457679749,-0.05306124687194824,0.05698259174823761,0.06604573130607605,0.09918152540922165,0.20036955177783966,0.08269642293453217,0.02440069615840912,-0.024331048130989075,0.12151238322257996,-0.13567465543746948,0.10905525088310242,0.10280019044876099,0.0819803923368454,-0.009937465190887451,-0.036044225096702576,-0.03043687343597412,0.1425417959690094,-0.09007366746664047,-0.1679731011390686,0.2045070379972458,0.16840238869190216,-0.19328464567661285,-0.13644441962242126,0.0065387701615691185,-0.022136330604553223,-0.049302250146865845,0.057986628264188766,-0.10576813668012619,-0.047078147530555725,-0.03616403043270111,0.11939022690057755,0.04498513415455818,0.18284662067890167,-0.03824864700436592,0.050820156931877136,0.13704517483711243,0.20634295046329498,-0.10097049176692963,-0.008259207010269165,0.05100066959857941,0.07384119927883148,-0.06894190609455109,0.19828641414642334,-0.02737121284008026,-0.06526991724967957,-0.1058197095990181,0.06492306292057037,-0.15643204748630524,0.0683453381061554,0.03441516309976578,0.1027490571141243,-0.03304549306631088,-0.13576862215995789,-0.1981073021888733,-0.010832811705768108,0.1759539246559143,0.09243070334196091,-0.20015032589435577,0.1313762366771698,-0.07571899890899658,0.10669218003749847,-0.17733842134475708,-0.07726000249385834,-0.004919290542602539,0.055268794298172,0.010698950849473476,-0.0485033243894577,-0.1930043250322342,0.04800960794091225,-0.2167990654706955,-0.02475021779537201,0.1093708872795105,-0.08478587865829468,0.08316902816295624,0.07338324189186096,0.1012972965836525,-0.15596267580986023,-0.04761146008968353,-0.14226090908050537,-0.10954385995864868,-0.005327057093381882,-0.10077717900276184,0.13793082535266876,0.0686679258942604,0.032699551433324814,-0.13643312454223633,0.04146120324730873,0.19300693273544312,-0.07311832904815674,0.14245231449604034,-0.18478910624980927,0.011027989909052849,0.021685035899281502,0.07330241054296494,-0.08191028982400894,-0.00918780267238617,0.02833332121372223,0.10178891569375992,-0.08738778531551361,-0.01436493918299675,-0.10871540009975433,-0.006072677206248045,0.017484061419963837,0.03856359422206879,0.10059446096420288,0.0283031165599823,-0.07706630229949951,-0.1523348093032837,-0.10878603905439377,-0.009213707409799099,-0.19276103377342224,0.01803714968264103,0.05823030695319176,0.015529200434684753,-0.21733050048351288,0.0501755028963089,0.1317407190799713,-0.1918051689863205,-0.1110619455575943,-0.04407879710197449,-0.1262485682964325,-0.21179693937301636,0.1449522227048874,-0.1879776269197464,0.019292771816253662,},};
float relu_biases[128] = {0.0,0.014041360467672348,0.0,-0.006869925651699305,0.0,-0.01919163390994072,0.004858947824686766,-0.008052973076701164,0.0,0.0,0.0,-0.005840708501636982,0.0,-0.018869483843445778,-0.0038686785846948624,0.0,0.0,0.0,0.0,0.010861356742680073,0.0,0.0,-0.007147621363401413,0.0,0.0,0.0,-9.033844253281131e-05,0.0,-0.016255725175142288,-0.015432891435921192,0.00531364232301712,-0.0023021914530545473,0.0,-0.0029937338549643755,-0.0011292494600638747,0.01506457757204771,-0.00829047616571188,0.0,-0.015852799639105797,0.0074459402821958065,0.0,0.0,0.0,0.0,0.0,-0.004311760421842337,0.0,0.0026907906867563725,-0.013330898247659206,0.009977012872695923,0.0,-0.018320472911000252,0.006058629602193832,0.015852993354201317,0.01992185413837433,-0.0010157704818993807,0.0,0.00736610684543848,0.0077232476323843,0.016619954258203506,0.0,-0.010394660755991936,0.0,0.0,0.0,0.0,0.0,-0.014945263974368572,-0.01894901506602764,0.0,0.0,-0.0037958447355777025,-0.01201501116156578,0.0,-0.009565113112330437,0.0,-0.01966000162065029,0.014201588928699493,-0.005460588727146387,0.0,0.0,0.0,0.0,-0.002814405830577016,-0.013152288272976875,0.0,0.001076450920663774,0.009096914902329445,-0.011501687578856945,0.01329210214316845,-0.0130956145003438,0.0,0.01064150407910347,0.014520958997309208,0.00926164910197258,-0.015177082270383835,-0.003252506023272872,-0.018577815964818,0.0,0.0,-0.013106778264045715,0.0,-0.010931823402643204,0.007711984217166901,0.005939750000834465,-0.006171470042318106,0.003591305110603571,-0.0124741792678833,0.0,0.0,0.0,0.0,0.007657839450985193,0.0,0.01459488458931446,-0.010350714437663555,0.0,-0.0007370568928308785,0.011076930910348892,0.00339297647587955,-0.007614575792104006,0.0,-0.027637934312224388,0.0,-0.033632177859544754,-0.01533515751361847,0.0,0.0,};
float softmax_weights[128][6] = {{0.0817493349313736,-0.13314077258110046,-0.0825500339269638,-0.08611378073692322,0.19327335059642792,0.10595370829105377,},{-0.11888233572244644,0.05184866860508919,-0.048866771161556244,0.10197659581899643,-0.13578280806541443,0.028950924053788185,},{-0.1268784999847412,-0.07466202974319458,0.02564471960067749,-0.08134840428829193,0.14761708676815033,0.20094753801822662,},{-0.11167668551206589,0.18571923673152924,-0.1434587687253952,0.21110115945339203,0.09188175946474075,-0.07266879081726074,},{-0.18523596227169037,-0.0765516459941864,0.06996883451938629,-0.015247330069541931,-0.038952186703681946,-0.14330847561359406,},{-0.15350466966629028,-0.05894569307565689,-0.0024468686897307634,0.07589052617549896,0.08490726351737976,-0.1340729296207428,},{0.0063447835855185986,0.08975083380937576,0.056431401520967484,-0.21418532729148865,-0.06920839101076126,-0.16546623408794403,},{0.04461836442351341,0.052620090544223785,0.1338879019021988,-0.10332140326499939,0.09013119339942932,0.16232620179653168,},{-0.20648635923862457,-0.19481410086154938,0.1974945217370987,-0.059682697057724,-0.06337888538837433,-0.13375632464885712,},{0.18957705795764923,-0.04676622152328491,-0.0331835001707077,0.04481707513332367,-0.1062648743391037,-0.1670963168144226,},{-0.12862543761730194,0.15322653949260712,0.0976995974779129,-0.07516294717788696,0.04219178855419159,-0.17390891909599304,},{0.11695465445518494,-0.01287182979285717,0.15750683844089508,0.13524435460567474,0.04505550488829613,0.05007270351052284,},{0.12129627168178558,-0.11032143235206604,0.12175379693508148,0.16683317720890045,0.06644909083843231,-0.18178653717041016,},{0.12748603522777557,0.14030586183071136,0.1799825131893158,0.03384310379624367,0.1923360973596573,0.030604641884565353,},{-0.055705778300762177,0.0792984589934349,-0.12534408271312714,0.14204524457454681,0.1618664711713791,-0.09018997102975845,},{0.01789112389087677,0.015469968318939209,0.015198037028312683,0.010603487491607666,-0.17800724506378174,-0.17454878985881805,},{-0.12411054223775864,0.029368102550506592,-0.14440703392028809,0.13688050210475922,0.03548695147037506,0.09137235581874847,},{0.05474276840686798,-0.07711240649223328,-0.01122407615184784,-0.13276150822639465,-0.14049389958381653,0.09615717828273773,},{-0.028245121240615845,-0.15735988318920135,0.12187226116657257,0.011387333273887634,0.03587785363197327,-0.05021949112415314,},{0.07656192779541016,0.21568305790424347,0.2063179910182953,-0.16400861740112305,0.032373711466789246,0.11728145182132721,},{0.05287332832813263,0.07084627449512482,0.011211007833480835,-0.16143858432769775,0.08708234131336212,0.05864231288433075,},{-0.03871077299118042,-0.09553305059671402,0.20390234887599945,0.05927653610706329,-0.012253209948539734,0.08939288556575775,},{-0.12340835481882095,-0.16595596075057983,-0.051288753747940063,0.16516265273094177,-0.07635758072137833,-0.18250584602355957,},{-0.16734015941619873,-0.0021678507328033447,0.09900219738483429,-0.01320253312587738,0.20647577941417694,0.1157752126455307,},{0.12330661714076996,0.024399101734161377,0.11775268614292145,0.20581965148448944,-0.0838773250579834,0.11824740469455719,},{-0.021067216992378235,0.03797687590122223,-0.14074990153312683,-0.09709685295820236,0.007119342684745789,-0.1832621991634369,},{0.1706313043832779,-0.021798672154545784,0.1732686161994934,-0.06535473465919495,-0.14815938472747803,-0.05698297545313835,},{-0.11360831558704376,-0.16804130375385284,0.044909849762916565,-0.1980535089969635,-0.1393979787826538,-0.012619316577911377,},{-0.06825321167707443,0.015403096564114094,0.19983552396297455,0.06915956735610962,0.11681105941534042,-0.16728289425373077,},{0.13522601127624512,-0.05221100524067879,-0.06998589634895325,-0.1817745417356491,-0.05535072088241577,-0.16243533790111542,},{-0.17256836593151093,0.22725363075733185,-0.16146118938922882,-0.1804569810628891,-0.05154583603143692,-0.09258437901735306,},{-0.035461682826280594,-0.10715334117412567,0.17690017819404602,0.1300392746925354,-0.10664772242307663,-0.15024946630001068,},{-0.2066817581653595,-0.010025069117546082,0.020584970712661743,0.07822497189044952,-0.1221107468008995,-0.19780811667442322,},{0.09743838757276535,-0.038985464721918106,0.12030908465385437,0.0019064152147620916,-0.06920817494392395,-0.09055217355489731,},{-0.0549495555460453,-0.17214925587177277,0.1488139033317566,0.08760032802820206,-0.1703757643699646,-0.17485570907592773,},{-0.14707720279693604,-0.017332114279270172,-0.062120966613292694,0.07838056981563568,-0.035930830985307693,0.07217082381248474,},{-0.20081336796283722,-0.025235706940293312,-0.03933228924870491,-0.11223786324262619,0.1903255432844162,-0.10990703850984573,},{0.1075865775346756,-0.001256108283996582,0.06449286639690399,-0.01391841471195221,0.05538038909435272,0.019365832209587097,},{0.02228977531194687,-0.041104305535554886,0.15282557904720306,-0.18936532735824585,0.10192617774009705,0.15745314955711365,},{-0.1816130429506302,0.058010902255773544,0.05403393507003784,0.18580195307731628,-0.052151210606098175,-0.1468954235315323,},{0.07547406852245331,-0.11818400025367737,-0.05212494730949402,-0.03672929108142853,-0.20862369239330292,-0.1212790235877037,},{-0.16467061638832092,-0.11995314061641693,0.03621813654899597,-0.05694325268268585,0.18016768991947174,0.10892899334430695,},{-0.04507695138454437,-0.006111547350883484,-0.19183409214019775,-0.1967342346906662,0.11843396723270416,-0.047080978751182556,},{0.08569534122943878,0.02172963321208954,-0.09497199207544327,0.07338584959506989,-0.18276122212409973,-0.07998907566070557,},{0.1466115564107895,-0.19350673258304596,-0.02244335412979126,-0.10015615820884705,0.04230673611164093,0.04974143207073212,},{0.1444384604692459,0.021130643784999847,-0.18324153125286102,-0.11875937879085541,0.11383889615535736,0.11918960511684418,},{0.04635177552700043,0.188230499625206,0.15970729291439056,0.15590907633304596,0.12459425628185272,0.01853269338607788,},{0.08334416151046753,-0.08599401265382767,0.20708124339580536,-0.004892707336694002,-0.23402878642082214,-0.08275751024484634,},{0.16288310289382935,0.06087256968021393,0.06935695558786392,0.13111960887908936,-0.04513212665915489,-0.08293057978153229,},{0.03504842519760132,-0.09634878486394882,-0.10770494490861893,0.03129154071211815,-0.0030353369656950235,0.190307155251503,},{0.13293524086475372,0.041847988963127136,0.1483486443758011,-0.019746631383895874,0.18489380180835724,-0.13706283271312714,},{0.019947005435824394,-0.12297619134187698,-0.1789911389350891,-0.04636376351118088,0.1062963604927063,-0.07040758430957794,},{0.0326775424182415,0.06872184574604034,0.13475491106510162,-0.1481577605009079,-0.16076436638832092,0.030991720035672188,},{0.09692017734050751,0.027905302122235298,-0.17572101950645447,0.11050111800432205,0.03697796165943146,0.22504977881908417,},{-0.1042516902089119,0.23944023251533508,0.059879083186388016,0.05180419981479645,0.02079603634774685,0.019344720989465714,},{-0.13971097767353058,0.12612876296043396,0.1630590409040451,0.14824187755584717,0.07838375866413116,0.1930355429649353,},{0.04079456627368927,-0.05090208351612091,0.13550658524036407,-0.07700413465499878,-0.19875097274780273,0.09205718338489532,},{-0.16257897019386292,0.0363895408809185,0.17997199296951294,-0.03673596307635307,-0.18393005430698395,0.18707728385925293,},{-0.22105136513710022,0.02272031269967556,-0.22552244365215302,-0.09018001705408096,0.019610492512583733,0.13663028180599213,},{0.0069023254327476025,0.1323985606431961,-0.08393074572086334,0.04627561569213867,-0.09004054218530655,0.17804808914661407,},{0.07284723222255707,0.04999755322933197,0.09401808679103851,-0.08740455657243729,0.08255566656589508,-0.035920217633247375,},{-0.036557067185640335,-0.16252833604812622,-0.08617273718118668,-0.1718055009841919,0.1170860305428505,0.08192411065101624,},{0.1725889891386032,-0.1602839231491089,0.11324916779994965,0.0658087283372879,0.014490678906440735,0.01682424545288086,},{-0.096420519053936,-0.17020496726036072,0.0940348356962204,-0.018144935369491577,-0.025247573852539062,-0.13928773999214172,},{0.18787218630313873,-0.06791707873344421,-0.029353976249694824,-0.10237324237823486,0.09683369100093842,-0.14738723635673523,},{0.05873887240886688,0.056057438254356384,0.1982860416173935,-0.04531849920749664,0.04464004933834076,-0.05761165916919708,},{-0.012810125946998596,-0.17851966619491577,-0.16124550998210907,0.13857059180736542,0.0499623566865921,-0.04993641376495361,},{0.15143123269081116,-0.06063709780573845,0.015961647033691406,-0.047654930502176285,0.20614008605480194,-0.15308451652526855,},{0.03126491978764534,-0.1808222383260727,0.16139590740203857,-0.03169352933764458,0.15303444862365723,-0.03332770988345146,},{-0.11961118876934052,-0.10028581321239471,0.15966515243053436,0.16812781989574432,-0.20680026710033417,0.08350060880184174,},{0.18916256725788116,0.17025597393512726,-0.08381855487823486,-0.18514354526996613,-0.04212328791618347,-0.17551890015602112,},{-0.07091488689184189,0.16593283414840698,-0.07164450734853745,0.09880850464105606,0.11632142961025238,-0.1900537610054016,},{0.1802719086408615,-0.032177671790122986,0.017177850008010864,-0.07258227467536926,0.0736965537071228,0.0704624354839325,},{0.06090112030506134,-0.08974741399288177,0.11736483871936798,-0.06829863786697388,-0.09202549606561661,-0.18565808236598969,},{-0.11207859963178635,0.05428801104426384,0.01415071077644825,0.046931590884923935,0.14223362505435944,-0.14384526014328003,},{0.17504991590976715,-0.17711704969406128,0.11701174080371857,-0.1923495978116989,0.1926867514848709,-0.13628029823303223,},{0.10836160182952881,-0.059137310832738876,0.04596663638949394,-0.08628413081169128,0.08266893029212952,0.061830874532461166,},{0.0030777393840253353,0.19267301261425018,0.03886820375919342,0.16232313215732574,-0.06174514442682266,0.08182907849550247,},{-0.10466574877500534,0.09219580143690109,-0.02882012352347374,-0.20171809196472168,0.1953674852848053,0.06529422104358673,},{-0.01749841868877411,0.16371102631092072,0.1653083711862564,0.18396906554698944,-0.04759688675403595,0.14300717413425446,},{0.012553229928016663,0.06062440574169159,-0.14679646492004395,0.19898109138011932,-0.04995720088481903,-0.0921744704246521,},{-0.11830709874629974,-0.024876520037651062,-0.07112345099449158,0.013513505458831787,-0.15406405925750732,-0.0177287757396698,},{0.08107410371303558,-0.18957246840000153,0.00136508047580719,0.0786973088979721,-0.11641405522823334,0.20447127521038055,},{0.0610065795481205,0.004721441771835089,0.0960923358798027,0.09084857255220413,-0.019684797152876854,-0.055884845554828644,},{-0.12059815227985382,-0.18231162428855896,0.014013541862368584,0.005732147488743067,0.1777605265378952,-0.16302712261676788,},{-0.001177757978439331,0.05427558720111847,-0.021328404545783997,0.02723117172718048,0.17022304236888885,-0.004518225789070129,},{-0.13619780540466309,0.16930069029331207,-0.0814761146903038,0.20900391042232513,-0.010757556185126305,0.01763916201889515,},{0.1912202537059784,0.13925985991954803,0.07976466417312622,0.18470533192157745,-0.08363483101129532,0.1410703808069229,},{0.007357822265475988,-0.13019217550754547,-0.06498344987630844,-0.16911619901657104,0.029708189889788628,0.030312690883874893,},{0.21615548431873322,0.12903350591659546,-0.12078256160020828,0.21223527193069458,-0.015118284150958061,0.1002500131726265,},{-0.087309829890728,-0.11613348871469498,-0.08260700106620789,0.017753586173057556,0.024198921397328377,-0.13148164749145508,},{0.01687021553516388,0.08121134340763092,-0.12489242106676102,-0.09088844805955887,-0.15575651824474335,0.20753921568393707,},{0.15301413834095,0.048868466168642044,-0.15421980619430542,0.19384071230888367,-0.08728139847517014,-0.014557229354977608,},{-0.1759503185749054,0.0224288459867239,0.09257332980632782,0.06996744126081467,-0.06000814214348793,0.24147213995456696,},{-0.009302725084125996,0.11782757192850113,0.15315912663936615,-0.18285995721817017,-0.20294684171676636,0.11228037625551224,},{0.042304109781980515,0.10823027044534683,0.11045141518115997,-0.16347603499889374,0.018017427995800972,0.10511011630296707,},{0.17279291152954102,-0.13439804315567017,0.09045824408531189,-0.07890145480632782,-0.15275557339191437,-0.20305365324020386,},{0.14921888709068298,-0.13854068517684937,-0.029088344424962997,-0.05957188829779625,0.03757637366652489,0.005379505455493927,},{-0.048868536949157715,-0.20866622030735016,-0.12629714608192444,0.06175266206264496,0.04139931499958038,-0.0036186426877975464,},{0.1095590740442276,0.2048518806695938,0.15986256301403046,-0.0982220470905304,0.013064488768577576,-0.18631327152252197,},{0.17804865539073944,-0.1692865788936615,-0.07889360189437866,-0.16788053512573242,0.00017086355364881456,0.09343750774860382,},{-0.12651091814041138,0.023777246475219727,-0.10023198276758194,0.12546049058437347,-0.1275900900363922,-0.09310457110404968,},{-0.09023698419332504,0.045870691537857056,0.19341978430747986,-0.11008860170841217,0.15586291253566742,-0.07645927369594574,},{0.19935278594493866,-0.03344356641173363,-0.1460520178079605,-0.09914519637823105,-0.10118591785430908,0.08353680372238159,},{0.024211460724473,0.17611029744148254,0.12460523098707199,-0.02167518436908722,-0.08383797854185104,-0.14126567542552948,},{-0.128333181142807,-0.02306601032614708,-0.05175290256738663,-0.18246077001094818,-0.11066409200429916,-0.15365105867385864,},{0.17737509310245514,0.09167784452438354,0.05626950412988663,0.1148204430937767,-0.03596112132072449,-0.025641202926635742,},{0.029903551563620567,-0.16039076447486877,-0.20604263246059418,0.10230640321969986,0.06184370443224907,-0.14317531883716583,},{0.1909748762845993,-0.06733106076717377,0.11026017367839813,0.08687402307987213,-0.017006978392601013,-0.15213817358016968,},{-0.20698264241218567,-0.036345019936561584,-0.011060208082199097,-0.06912209093570709,0.04067368805408478,0.09905554354190826,},{-0.16083675622940063,-0.0068320780992507935,0.07517682015895844,-0.001138150691986084,-0.1345856785774231,0.10052494704723358,},{-0.0667634904384613,0.12363655865192413,0.07070516049861908,0.15902478992938995,-0.15561732649803162,0.1508483737707138,},{-0.16894933581352234,0.03235097602009773,-0.1393013298511505,0.06857035309076309,0.0025880082976073027,0.21595333516597748,},{0.08495761454105377,0.057467326521873474,0.03252053260803223,-0.02326008677482605,-0.1719483733177185,0.03556889295578003,},{-0.013675177469849586,0.16695600748062134,-0.03250765800476074,-0.10947047919034958,-0.1667356789112091,0.0757712721824646,},{0.1853834092617035,0.03028128109872341,-0.0754699781537056,-0.030257083475589752,0.08375581353902817,0.013739769347012043,},{-0.12775909900665283,-0.14012037217617035,0.038651153445243835,0.140743687748909,-0.1352805197238922,0.09017927944660187,},{0.0011272031115368009,-0.20805831253528595,-0.06887296587228775,0.0024123764596879482,0.007380531635135412,0.11360889673233032,},{0.11674674600362778,0.082124263048172,0.020231887698173523,-0.205865278840065,-0.0535660982131958,0.13474446535110474,},{-0.12079506367444992,-0.058033667504787445,0.17719094455242157,0.12975674867630005,-0.12390965968370438,0.007212937343865633,},{0.10221883654594421,0.04719482734799385,0.025810720399022102,0.006425409112125635,0.13055957853794098,0.13676472008228302,},{-0.15041354298591614,0.019098803400993347,-0.03941909968852997,0.12077067792415619,0.03603781759738922,-0.019809648394584656,},{0.14976747334003448,-0.041882310062646866,-0.14249612390995026,-0.17227400839328766,-0.029896710067987442,-0.10074224323034286,},{-0.049350038170814514,0.16928328573703766,-0.02513284981250763,0.07303260266780853,-0.05915367603302002,-0.07264669239521027,},{0.09218540042638779,0.0964144691824913,0.17225247621536255,0.08296336233615875,0.07062098383903503,-0.07871472835540771,},{-0.1475566327571869,-0.009417091496288776,0.150668203830719,-0.18750107288360596,0.008699869737029076,-0.06512585282325745,},{0.02096162736415863,0.08340330421924591,0.06032927334308624,0.18701554834842682,0.1403423398733139,-0.1437622308731079,},{-0.009154796600341797,-0.14030471444129944,0.19696812331676483,-0.003385007381439209,-0.06992501020431519,-0.12746411561965942,},};
float softmax_biases[6] = {0.0009280055528506637,0.02123788557946682,-0.005405290983617306,0.0064427959732711315,-0.009142694063484669,0.016992293298244476,};
#endif